<?xml version="1.0"?>
<opencv_storage>
<cascade>
  <stageType>BOOST</stageType>
  <featureType>HAAR</featureType>
  <height>24</height>
  <width>24</width>
  <stageParams>
    <boostType>GAB</boostType>
    <minHitRate>9.9500000476837158e-01</minHitRate>
    <maxFalseAlarm>5.0000000000000000e-01</maxFalseAlarm>
    <weightTrimRate>9.4999999999999996e-01</weightTrimRate>
    <maxDepth>1</maxDepth>
    <maxWeakCount>100</maxWeakCount></stageParams>
  <featureParams>
    <maxCatCount>0</maxCatCount>
    <featSize>1</featSize>
    <mode>BASIC</mode></featureParams>
  <stageNum>10</stageNum>
  <stages>
    <!-- stage 0 -->
    <_>
      <maxWeakCount>1</maxWeakCount>
      <stageThreshold>9.8013246059417725e-01</stageThreshold>
      <weakClassifiers>
        <_>
          <internalNodes>
            0 -1 14 -2.9980693012475967e-02</internalNodes>
          <leafValues>
            9.8013246059417725e-01 -9.1304349899291992e-01</leafValues></_></weakClassifiers></_>
    <!-- stage 1 -->
    <_>
      <maxWeakCount>2</maxWeakCount>
      <stageThreshold>8.9824177324771881e-02</stageThreshold>
      <weakClassifiers>
        <_>
          <internalNodes>
            0 -1 0 -1.3249716162681580e-01</internalNodes>
          <leafValues>
            -7.6923078298568726e-01 9.8662209510803223e-01</leafValues></_>
        <_>
          <internalNodes>
            0 -1 6 2.3588234558701515e-02</internalNodes>
          <leafValues>
            -8.9679789543151855e-01 9.6098834276199341e-01</leafValues></_></weakClassifiers></_>
    <!-- stage 2 -->
    <_>
      <maxWeakCount>1</maxWeakCount>
      <stageThreshold>9.8013246059417725e-01</stageThreshold>
      <weakClassifiers>
        <_>
          <internalNodes>
            0 -1 16 -1.5625512599945068e-01</internalNodes>
          <leafValues>
            -9.1304349899291992e-01 9.8013246059417725e-01</leafValues></_></weakClassifiers></_>
    <!-- stage 3 -->
    <_>
      <maxWeakCount>2</maxWeakCount>
      <stageThreshold>2.4297660589218140e-01</stageThreshold>
      <weakClassifiers>
        <_>
          <internalNodes>
            0 -1 10 -4.1916459798812866e-02</internalNodes>
          <leafValues>
            9.6677738428115845e-01 -6.6666668653488159e-01</leafValues></_>
        <_>
          <internalNodes>
            0 -1 4 2.5900444015860558e-02</internalNodes>
          <leafValues>
            -7.2380077838897705e-01 9.6548241376876831e-01</leafValues></_></weakClassifiers></_>
    <!-- stage 4 -->
    <_>
      <maxWeakCount>2</maxWeakCount>
      <stageThreshold>1.6630622744560242e-01</stageThreshold>
      <weakClassifiers>
        <_>
          <internalNodes>
            0 -1 15 -5.7693077251315117e-03</internalNodes>
          <leafValues>
            9.6699672937393188e-01 -8.1818181276321411e-01</leafValues></_>
        <_>
          <internalNodes>
            0 -1 2 7.2252243757247925e-02</internalNodes>
          <leafValues>
            -6.2029182910919189e-01 9.8448807001113892e-01</leafValues></_></weakClassifiers></_>
    <!-- stage 5 -->
    <_>
      <maxWeakCount>1</maxWeakCount>
      <stageThreshold>9.2307692766189575e-01</stageThreshold>
      <weakClassifiers>
        <_>
          <internalNodes>
            0 -1 9 -6.0919197276234627e-03</internalNodes>
          <leafValues>
            -1. 9.2307692766189575e-01</leafValues></_></weakClassifiers></_>
    <!-- stage 6 -->
    <_>
      <maxWeakCount>2</maxWeakCount>
      <stageThreshold>3.6317875981330872e-01</stageThreshold>
      <weakClassifiers>
        <_>
          <internalNodes>
            0 -1 7 4.1097827255725861e-02</internalNodes>
          <leafValues>
            -5.3846156597137451e-01 9.6655517816543579e-01</leafValues></_>
        <_>
          <internalNodes>
            0 -1 17 -3.7793628871440887e-02</internalNodes>
          <leafValues>
            9.7036337852478027e-01 -6.0337644815444946e-01</leafValues></_></weakClassifiers></_>
    <!-- stage 7 -->
    <_>
      <maxWeakCount>1</maxWeakCount>
      <stageThreshold>9.5439738035202026e-01</stageThreshold>
      <weakClassifiers>
        <_>
          <internalNodes>
            0 -1 13 -3.5594783257693052e-03</internalNodes>
          <leafValues>
            -1. 9.5439738035202026e-01</leafValues></_></weakClassifiers></_>
    <!-- stage 8 -->
    <_>
      <maxWeakCount>3</maxWeakCount>
      <stageThreshold>9.7355401515960693e-01</stageThreshold>
      <weakClassifiers>
        <_>
          <internalNodes>
            0 -1 3 -1.3156741857528687e-01</internalNodes>
          <leafValues>
            -7.7777779102325439e-01 9.4136810302734375e-01</leafValues></_>
        <_>
          <internalNodes>
            0 -1 1 2.2769037634134293e-02</internalNodes>
          <leafValues>
            -7.1687597036361694e-01 9.2707914113998413e-01</leafValues></_>
        <_>
          <internalNodes>
            0 -1 11 -1.0764171020127833e-04</internalNodes>
          <leafValues>
            -7.4049478769302368e-01 8.2425266504287720e-01</leafValues></_></weakClassifiers></_>
    <!-- stage 9 -->
    <_>
      <maxWeakCount>3</maxWeakCount>
      <stageThreshold>1.0103493928909302e+00</stageThreshold>
      <weakClassifiers>
        <_>
          <internalNodes>
            0 -1 5 -5.3247891366481781e-02</internalNodes>
          <leafValues>
            9.5379537343978882e-01 -6.3636362552642822e-01</leafValues></_>
        <_>
          <internalNodes>
            0 -1 12 1.5786269796080887e-04</internalNodes>
          <leafValues>
            9.2321050167083740e-01 -8.1685048341751099e-01</leafValues></_>
        <_>
          <internalNodes>
            0 -1 8 2.2906295955181122e-02</internalNodes>
          <leafValues>
            -8.6250805854797363e-01 8.7340444326400757e-01</leafValues></_></weakClassifiers></_></stages>
  <features>
    <_>
      <rects>
        <_>
          0 0 6 17 -1.</_>
        <_>
          2 0 2 17 2.</_></rects>
      <tilted>0</tilted></_>
    <_>
      <rects>
        <_>
          0 2 6 18 -1.</_>
        <_>
          3 2 3 18 2.</_></rects>
      <tilted>0</tilted></_>
    <_>
      <rects>
        <_>
          0 4 10 14 -1.</_>
        <_>
          5 4 5 14 2.</_></rects>
      <tilted>0</tilted></_>
    <_>
      <rects>
        <_>
          0 6 12 7 -1.</_>
        <_>
          4 6 4 7 2.</_></rects>
      <tilted>0</tilted></_>
    <_>
      <rects>
        <_>
          1 1 6 16 -1.</_>
        <_>
          4 1 3 16 2.</_></rects>
      <tilted>0</tilted></_>
    <_>
      <rects>
        <_>
          2 12 20 12 -1.</_>
        <_>
          2 18 20 6 2.</_></rects>
      <tilted>0</tilted></_>
    <_>
      <rects>
        <_>
          4 0 16 8 -1.</_>
        <_>
          4 4 16 4 2.</_></rects>
      <tilted>0</tilted></_>
    <_>
      <rects>
        <_>
          5 0 17 8 -1.</_>
        <_>
          5 4 17 4 2.</_></rects>
      <tilted>0</tilted></_>
    <_>
      <rects>
        <_>
          6 1 16 6 -1.</_>
        <_>
          6 4 16 3 2.</_></rects>
      <tilted>0</tilted></_>
    <_>
      <rects>
        <_>
          6 8 6 7 -1.</_>
        <_>
          9 8 3 7 2.</_></rects>
      <tilted>0</tilted></_>
    <_>
      <rects>
        <_>
          7 14 13 10 -1.</_>
        <_>
          7 19 13 5 2.</_></rects>
      <tilted>0</tilted></_>
    <_>
      <rects>
        <_>
          9 10 4 2 -1.</_>
        <_>
          9 10 2 1 2.</_>
        <_>
          11 11 2 1 2.</_></rects>
      <tilted>0</tilted></_>
    <_>
      <rects>
        <_>
          11 12 2 2 -1.</_>
        <_>
          12 12 1 2 2.</_></rects>
      <tilted>0</tilted></_>
    <_>
      <rects>
        <_>
          12 6 3 6 -1.</_>
        <_>
          12 9 3 3 2.</_></rects>
      <tilted>0</tilted></_>
    <_>
      <rects>
        <_>
          12 7 3 8 -1.</_>
        <_>
          13 7 1 8 2.</_></rects>
      <tilted>0</tilted></_>
    <_>
      <rects>
        <_>
          17 1 4 20 -1.</_>
        <_>
          19 1 2 20 2.</_></rects>
      <tilted>0</tilted></_>
    <_>
      <rects>
        <_>
          17 5 6 19 -1.</_>
        <_>
          19 5 2 19 2.</_></rects>
      <tilted>0</tilted></_>
    <_>
      <rects>
        <_>
          18 0 6 21 -1.</_>
        <_>
          21 0 3 21 2.</_></rects>
      <tilted>0</tilted></_></features></cascade>
</opencv_storage>
